[
  {
    "act": "sigmoid",
    "b": [
      1.034702982818793,
      0.9411351110507754,
      -0.043586468706932724,
      0.7992306962004458
    ],
    "inputs": 8,
    "outputs": 4,
    "w": [
      [
        -0.6038337982794054,
        0.3569819515317475,
        1.0019643686413746,
        0.40764375560094535,
        -0.26737461837498605,
        0.09656991924794874,
        -0.7817090459873653,
        -0.587187735287612
      ],
      [
        -0.5883967106003132,
        -0.768479842177719,
        -0.29133715650765357,
        0.03335584218018356,
        0.5559297124647812,
        0.39981479874074516,
        1.0816386592483465,
        -0.7022318690223956
      ],
      [
        -0.13616398054748893,
        -0.601183808077653,
        -0.20482823197315136,
        1.3375493136065466,
        -0.9665224088912352,
        -0.5647492391972626,
        0.11175611383038575,
        2.165188950001416
      ],
      [
        0.5140211229810693,
        -0.04810227683475119,
        0.8215607214522476,
        1.5427803057673815,
        0.29027746425606865,
        0.8070411005141199,
        -0.030555634054532047,
        0.790283151284088
      ]
    ]
  },
  {
    "act": "sigmoid",
    "b": [
      0.5977159803306793,
      0.4299308925564048,
      0.7865889407211148,
      0.697910260290028
    ],
    "inputs": 4,
    "outputs": 4,
    "w": [
      [
        -1.0432771557954295,
        -0.9537608218940816,
        -2.7018773699141194,
        0.5479211906085804
      ],
      [
        0.16025026757291755,
        -0.6183308951479497,
        -2.258260313423966,
        -0.7302289602563153
      ],
      [
        -0.39551495271385695,
        -0.08128015375490798,
        -3.172589715529847,
        -1.200237309428141
      ],
      [
        -1.2501972196146114,
        -0.5056885906327965,
        -2.517690005143104,
        -0.33349047559506423
      ]
    ]
  },
  {
    "act": "linear",
    "b": [
      0.6091627289517684
    ],
    "inputs": 4,
    "outputs": 1,
    "w": [
      [
        -0.6043646965220458,
        -1.6591608753453149,
        -2.496547328955607,
        -0.6505794779377126
      ]
    ]
  }
]