[
  {
    "act": "sigmoid",
    "b": [
      1.074931057887007,
      1.0177329364861092,
      1.005750592431313,
      0.9964804594878479,
      1.0130407993182222,
      -0.05135949721731715
    ],
    "inputs": 8,
    "outputs": 6,
    "w": [
      [
        0.841962185904315,
        -0.37540762200326927,
        -0.18768725535631064,
        -0.7932920571716757,
        0.24443828027149472,
        -0.1411302261950628,
        0.6058228595717985,
        -0.7061606203420566
      ],
      [
        1.0633892021811793,
        1.2121213284291996,
        1.5158369397268652,
        0.6560239297740872,
        -0.3031640760129715,
        1.7352207686067491,
        1.598447161893565,
        0.8301918082389026
      ],
      [
        0.9069682700210239,
        -0.27205248238523005,
        -0.08708215404333505,
        0.805457218398039,
        -0.14297162004298664,
        -0.6088821742342646,
        -0.08017122424198482,
        -0.9643350515761081
      ],
      [
        -0.7982500725644215,
        0.6669953834475462,
        0.4104533605722936,
        0.7980653014823642,
        -0.9710911046855598,
        0.5923892844218941,
        -0.7126720759803806,
        -0.12662680322205092
      ],
      [
        -0.5870434615357033,
        0.43146115135351437,
        0.47639544765184066,
        0.1164262389408058,
        -0.012454425910574786,
        0.05492904819199712,
        -0.04681189020245537,
        -0.6329627662192492
      ],
      [
        -0.13858189057025846,
        -0.8002044318209048,
        -0.16072372752338915,
        1.6158929451021107,
        -1.3221604117487349,
        -0.35704667167600607,
        0.6219359155513335,
        1.7958051388876557
      ]
    ]
  },
  {
    "act": "sigmoid",
    "b": [
      0.9894667285868871,
      0.6415992997914091,
      1.0022518197082027,
      0.7840517607779028
    ],
    "inputs": 6,
    "outputs": 4,
    "w": [
      [
        0.6386853001459663,
        0.4060004632644198,
        0.600608029204465,
        0.4873346605667978,
        0.42300186047636984,
        -0.7028589541972083
      ],
      [
        -0.6488516012562112,
        -1.0683861486784003,
        -0.7757725418912617,
        -1.015222738544238,
        0.049793172122742736,
        -2.8385495307734563
      ],
      [
        0.8864098314888703,
        0.5745863689399909,
        0.7658781960907385,
        -0.3760256498544874,
        0.3308971422568066,
        0.2555933943414685
      ],
      [
        -0.8499924697561463,
        0.24276681689769727,
        -1.0480432120364638,
        -1.1315332111876923,
        -0.42382709796844054,
        -2.9806204764815676
      ]
    ]
  },
  {
    "act": "linear",
    "b": [
      0.4910134280754614
    ],
    "inputs": 4,
    "outputs": 1,
    "w": [
      [
        -0.061265946047461196,
        -1.6460132295757874,
        0.310269204256343,
        -3.1484472772626244
      ]
    ]
  }
]